{
  "nodeid": 0,
  "depth": 0,
  "split": "brand_match",
  "split_condition": 0.5,
  "yes": 1,
  "no": 2,
  "missing": 1,
  "children": [
    {
      "nodeid": 1,
      "depth": 1,
      "split": "jaccard_score_title",
      "split_condition": 0.192539394,
      "yes": 3,
      "no": 4,
      "missing": 3,
      "children": [
        {
          "nodeid": 3,
          "leaf": -0.127792358
        },
        {
          "nodeid": 4,
          "leaf": -0.079585135
        }
      ]
    },
    {
      "nodeid": 2,
      "depth": 1,
      "split": "jaccard_score_title",
      "split_condition": 0.263654411,
      "yes": 5,
      "no": 6,
      "missing": 5,
      "children": [
        {
          "nodeid": 5,
          "leaf": -0.00621658005
        },
        {
          "nodeid": 0,
          "depth": 0,
          "split": "brand_match",
          "split_condition": 0.5,
          "yes": 1,
          "no": 2,
          "missing": 1,
          "children": [
            {
              "nodeid": 1,
              "depth": 1,
              "split": "jaccard_score_title",
              "split_condition": 0.192539394,
              "yes": 3,
              "no": 4,
              "missing": 3,
              "children": [
                {
                  "nodeid": 3,
                  "leaf": -0.127792358
                },
                {
                  "nodeid": 4,
                  "leaf": -0.079585135
                }
              ]
            },
            {
              "nodeid": 2,
              "depth": 1,
              "split": "jaccard_score_title",
              "split_condition": 0.263654411,
              "yes": 5,
              "no": 6,
              "missing": 5,
              "children": [
                {
                  "nodeid": 5,
                  "leaf": -0.00621658005
                },
                {
                  "nodeid": 6,
                  "leaf": 0.034244433
                }
              ]
            }
          ]
        }
      ]
    }
  ]
}